0
-0.0014799999999999952
-0.0014799999999999952
-0.0014799999999999952
-0.0014799999999999952
-0.0014799999999999952
-0.0014799999999999952
-0.0014799999999999952
-0.0014799999999999952
-0.0014799999999999952
-0.0014799999999999952
-0.0014799999999999952
-0.0014799999999999952
-0.0014799999999999952
-0.0014799999999999952
-0.0014799999999999952
-0.0014799999999999952
-0.0014799999999999952
-0.0014799999999999952
-0.0014799999999999952
-0.0014799999999999952
-0.0014799999999999952
-0.0014799999999999952
-0.0014799999999999952
-0.0014799999999999952
-0.0014799999999999952
-0.0014799999999999952
-0.0014799999999999952
-0.0014799999999999952
-0.0014799999999999952
-0.0014799999999999952
-0.0014799999999999952
-0.0014799999999999952
-0.0014799999999999952
-0.0014799999999999952
-0.0014799999999999952
-0.0014799999999999952
-0.0014799999999999952
-0.0014799999999999952
-0.0014799999999999952
-0.0014799999999999952
-0.0014799999999999952
-0.0014799999999999952
-0.0014799999999999952
-0.0014799999999999952
-0.0014799999999999952
-0.0014799999999999952
-0.0014799999999999952
-0.0014799999999999952
-0.0014799999999999952
-0.0014799999999999952
0.05752000000000002
0.05752000000000002
0.05752000000000002
0.05752000000000002
0.05752000000000002
0.05752000000000002
0.05752000000000002
0.05752000000000002
0.05752000000000002
0.05752000000000002
0.05752000000000002
0.05752000000000002
0.05752000000000002
0.05752000000000002
0.05752000000000002
0.05752000000000002
0.05752000000000002
0.05752000000000002
0.05752000000000002
0.05752000000000002
0.05752000000000002
0.05752000000000002
0.05752000000000002
0.05752000000000002
0.05752000000000002
0.05752000000000002
0.05752000000000002
0.05752000000000002
0.05752000000000002
0.05752000000000002
0.05752000000000002
0.05752000000000002
0.05752000000000002
0.05752000000000002
0.05752000000000002
0.05752000000000002
0.05752000000000002
0.05752000000000002
0.05752000000000002
0.05752000000000002
0.05752000000000002
0.05752000000000002
0.05752000000000002
0.05752000000000002
0.05752000000000002
0.05752000000000002
0.05752000000000002
0.05752000000000002
0.05752000000000002
0.05752000000000002
0.11652000000000001
0.11652000000000001
0.11652000000000001
0.11652000000000001
0.11652000000000001
0.11652000000000001
0.11652000000000001
0.11652000000000001
0.11652000000000001
0.11652000000000001
0.11652000000000001
0.11652000000000001
0.11652000000000001
0.11652000000000001
0.11652000000000001
0.11652000000000001
0.11652000000000001
0.11652000000000001
0.11652000000000001
0.11652000000000001
0.11652000000000001
0.11652000000000001
0.11652000000000001
0.11652000000000001
0.11652000000000001
0.11652000000000001
0.11652000000000001
0.11652000000000001
0.11652000000000001
0.11652000000000001
0.11652000000000001
0.11652000000000001
0.11652000000000001
0.11652000000000001
0.11652000000000001
0.11652000000000001
0.11652000000000001
0.11652000000000001
0.11652000000000001
0.11652000000000001
0.11652000000000001
0.11652000000000001
0.11652000000000001
0.11652000000000001
0.11652000000000001
0.11652000000000001
0.11652000000000001
0.11652000000000001
0.11652000000000001
0.11652000000000001
